Language model created by QuickLM on Sat Apr 27 22:55:27 EDT 2024
Copyright (c) 1996-2010 Carnegie Mellon University and Alexander I. Rudnicky

The model is in standard ARPA format, designed by Doug Paul while he was at MITRE.

The code that was used to produce this language model is available in Open Source.
Please visit http://www.speech.cs.cmu.edu/tools/ for more information

The (fixed) discount mass is 0.5. The backoffs are computed using the ratio method.
This model based on a corpus of 24 sentences and 33 words

\data\
ngram 1=33
ngram 2=50
ngram 3=59

\1-grams:
-1.5472 </doc> -0.2624
-1.0700 </s> -0.3010
-1.5472 <DOC -0.2885
-1.0700 <s> -0.2573
-2.4502 A -0.2995
-2.4502 CALENDAR -0.2933
-2.1492 DEVICE -0.2624
-1.5472 FILENAME="PASTED_TEXT.TXT" -0.2885
-1.7513 FOR -0.2917
-1.6721 HEY -0.2917
-2.4502 HOWS -0.2979
-2.4502 ID="FILE32675562" -0.2885
-2.4502 ID="FILE32675571" -0.2885
-2.4502 ID="FILE32675585" -0.2885
-2.4502 ID="FILE32675611" -0.2885
-2.4502 ID="FILE32675623" -0.2885
-2.4502 ID="FILE32675629" -0.2885
-2.4502 ID="FILE32675689" -0.2885
-2.4502 ID="FILE32675692" -0.2885
-1.7513 ME -0.2917
-1.8482 MY -0.2948
-2.4502 NEW -0.2979
-2.1492 PAIR -0.2964
-1.5472 PARENT_FOLDER="UPLOAD"> -0.2624
-1.6721 PRISM -0.2885
-1.9731 SCHEDULE -0.2933
-1.7513 SHOW -0.2933
-2.1492 THE -0.2979
-2.4502 THIS -0.2995
-1.8482 TODAY -0.2624
-2.4502 TOMORROW -0.2624
-2.1492 WEATHER -0.2869
-2.4502 WEEK -0.2624

\2-grams:
-0.3010 </doc> </s> -0.3010
-1.2041 <DOC ID="FILE32675562" 0.0000
-1.2041 <DOC ID="FILE32675571" 0.0000
-1.2041 <DOC ID="FILE32675585" 0.0000
-1.2041 <DOC ID="FILE32675611" 0.0000
-1.2041 <DOC ID="FILE32675623" 0.0000
-1.2041 <DOC ID="FILE32675629" 0.0000
-1.2041 <DOC ID="FILE32675689" 0.0000
-1.2041 <DOC ID="FILE32675692" 0.0000
-0.7782 <s> </doc> 0.0000
-0.7782 <s> <DOC 0.0000
-0.9031 <s> HEY 0.0000
-1.3802 <s> SHOW 0.0000
-0.3010 A NEW 0.0000
-0.3010 CALENDAR FOR -0.1461
-0.3010 DEVICE </s> -0.3010
-0.3010 FILENAME="PASTED_TEXT.TXT" PARENT_FOLDER="UPLOAD"> 0.0000
-1.0000 FOR THIS 0.0000
-0.5229 FOR TODAY 0.0000
-1.0000 FOR TOMORROW 0.0000
-0.3010 HEY PRISM 0.0000
-0.3010 HOWS THE 0.0000
-0.3010 ID="FILE32675562" FILENAME="PASTED_TEXT.TXT" 0.0000
-0.3010 ID="FILE32675571" FILENAME="PASTED_TEXT.TXT" 0.0000
-0.3010 ID="FILE32675585" FILENAME="PASTED_TEXT.TXT" 0.0000
-0.3010 ID="FILE32675611" FILENAME="PASTED_TEXT.TXT" 0.0000
-0.3010 ID="FILE32675623" FILENAME="PASTED_TEXT.TXT" 0.0000
-0.3010 ID="FILE32675629" FILENAME="PASTED_TEXT.TXT" 0.0000
-0.3010 ID="FILE32675689" FILENAME="PASTED_TEXT.TXT" 0.0000
-0.3010 ID="FILE32675692" FILENAME="PASTED_TEXT.TXT" 0.0000
-0.3979 ME MY 0.0000
-1.0000 ME THE 0.0000
-0.9031 MY CALENDAR 0.0000
-0.4260 MY SCHEDULE 0.0000
-0.3010 NEW DEVICE 0.0000
-0.6021 PAIR A 0.0000
-0.6021 PAIR DEVICE 0.0000
-0.3010 PARENT_FOLDER="UPLOAD"> </s> -0.3010
-1.0792 PRISM HOWS 0.0000
-0.7782 PRISM PAIR 0.0000
-0.6021 PRISM SHOW 0.0000
-0.3010 SCHEDULE FOR 0.0000
-0.3010 SHOW ME 0.0000
-0.3010 THE WEATHER 0.0000
-0.3010 THIS WEEK 0.0000
-0.3010 TODAY </s> -0.3010
-0.3010 TOMORROW </s> -0.3010
-0.6021 WEATHER FOR -0.1461
-0.6021 WEATHER TODAY 0.0000
-0.3010 WEEK </s> -0.3010

\3-grams:
-0.3010 <DOC ID="FILE32675562" FILENAME="PASTED_TEXT.TXT"
-0.3010 <DOC ID="FILE32675571" FILENAME="PASTED_TEXT.TXT"
-0.3010 <DOC ID="FILE32675585" FILENAME="PASTED_TEXT.TXT"
-0.3010 <DOC ID="FILE32675611" FILENAME="PASTED_TEXT.TXT"
-0.3010 <DOC ID="FILE32675623" FILENAME="PASTED_TEXT.TXT"
-0.3010 <DOC ID="FILE32675629" FILENAME="PASTED_TEXT.TXT"
-0.3010 <DOC ID="FILE32675689" FILENAME="PASTED_TEXT.TXT"
-0.3010 <DOC ID="FILE32675692" FILENAME="PASTED_TEXT.TXT"
-0.3010 <s> </doc> </s>
-1.2041 <s> <DOC ID="FILE32675562"
-1.2041 <s> <DOC ID="FILE32675571"
-1.2041 <s> <DOC ID="FILE32675585"
-1.2041 <s> <DOC ID="FILE32675611"
-1.2041 <s> <DOC ID="FILE32675623"
-1.2041 <s> <DOC ID="FILE32675629"
-1.2041 <s> <DOC ID="FILE32675689"
-1.2041 <s> <DOC ID="FILE32675692"
-0.3010 <s> HEY PRISM
-0.3010 <s> SHOW ME
-0.3010 A NEW DEVICE
-0.3010 CALENDAR FOR TODAY
-0.3010 FILENAME="PASTED_TEXT.TXT" PARENT_FOLDER="UPLOAD"> </s>
-0.3010 FOR THIS WEEK
-0.3010 FOR TODAY </s>
-0.3010 FOR TOMORROW </s>
-1.0792 HEY PRISM HOWS
-0.7782 HEY PRISM PAIR
-0.6021 HEY PRISM SHOW
-0.3010 HOWS THE WEATHER
-0.3010 ID="FILE32675562" FILENAME="PASTED_TEXT.TXT" PARENT_FOLDER="UPLOAD">
-0.3010 ID="FILE32675571" FILENAME="PASTED_TEXT.TXT" PARENT_FOLDER="UPLOAD">
-0.3010 ID="FILE32675585" FILENAME="PASTED_TEXT.TXT" PARENT_FOLDER="UPLOAD">
-0.3010 ID="FILE32675611" FILENAME="PASTED_TEXT.TXT" PARENT_FOLDER="UPLOAD">
-0.3010 ID="FILE32675623" FILENAME="PASTED_TEXT.TXT" PARENT_FOLDER="UPLOAD">
-0.3010 ID="FILE32675629" FILENAME="PASTED_TEXT.TXT" PARENT_FOLDER="UPLOAD">
-0.3010 ID="FILE32675689" FILENAME="PASTED_TEXT.TXT" PARENT_FOLDER="UPLOAD">
-0.3010 ID="FILE32675692" FILENAME="PASTED_TEXT.TXT" PARENT_FOLDER="UPLOAD">
-0.9031 ME MY CALENDAR
-0.4260 ME MY SCHEDULE
-0.3010 ME THE WEATHER
-0.3010 MY CALENDAR FOR
-0.3010 MY SCHEDULE FOR
-0.3010 NEW DEVICE </s>
-0.3010 PAIR A NEW
-0.3010 PAIR DEVICE </s>
-0.3010 PRISM HOWS THE
-0.6021 PRISM PAIR A
-0.6021 PRISM PAIR DEVICE
-0.3010 PRISM SHOW ME
-0.7782 SCHEDULE FOR THIS
-0.7782 SCHEDULE FOR TODAY
-0.7782 SCHEDULE FOR TOMORROW
-0.3979 SHOW ME MY
-1.0000 SHOW ME THE
-0.6021 THE WEATHER FOR
-0.6021 THE WEATHER TODAY
-0.3010 THIS WEEK </s>
-0.3010 WEATHER FOR TODAY
-0.3010 WEATHER TODAY </s>

\end\
